function [Y,Xf,Af] = net_naca0012_quad_fine(X,~,~)
%NET_NACA0012_QUAD_FINE neural network simulation function.
%
% Generated by Neural Network Toolbox function genFunction, 12-Aug-2020 08:48:58.
% 
% [Y] = net_naca0012_quad_fine(X,~,~) takes these arguments:
% 
%   X = 1xTS cell, 1 inputs over TS timesteps
%   Each X{1,ts} = 8xQ matrix, input #1 at timestep ts.
% 
% and returns:
%   Y = 1xTS cell of 1 outputs over TS timesteps.
%   Each Y{1,ts} = 4xQ matrix, output #1 at timestep ts.
% 
% where Q is number of samples (or series) and TS is the number of timesteps.

%#ok<*RPMT0>

% ===== NEURAL NETWORK CONSTANTS =====

% Input 1
x1_step1.keep = [1 4 5 8];
x1_step2.xoffset = [-2.05969244815767;-0.458413185817906;-2.15139100765146;-2.96433394200652];
x1_step2.gain = [0.572871090192172;0.521103159091411;0.490249420819243;0.41065523144853];
x1_step2.ymin = -1;

% Layer 1
b1 = [-2.6870473027656993636;0.50387538700411438342;-1.3900838980439305104;0.53283002928100076101;0.85467066529330737445;2.3333967240523931785;0.60756643142646016287;-1.1833965908153039059;-2.6764683408668181741;0.26935611419647853548;-1.6954821336365337725;-0.3295375815976923084;-1.3788932059674994246;-2.2850457722332371269;10.260596369194930233];
IW1_1 = [0.46408334172706589005 -0.96091528082354571438 0.48805419081724532582 3.5802881017736924996;-0.46520562260400666332 -0.14899779742487370693 -0.84682615887109335961 0.143271490637956328;0.48348556677953885563 0.034037431118910083105 5.0554119867674636168 0.67501064702378554827;1.2126948561963561968 -0.11812899078185655488 1.7781520962785408724 -0.21826996130822681752;-0.017252871502956575178 -0.07627610325402939262 -2.667592306115855294 0.54244223537479607788;0.37608497067805612968 -0.19593678198995673201 0.17877972752924284339 -7.5515224497192594555;-10.748867512092726173 -0.3811085606023603134 -4.4366446879221923538 -0.3591355022416676257;1.1443487207215881085 -2.8794171827251160423 0.98705732290174752475 0.71373165520483450308;-2.6411880429966161365 -8.4314574434370612721 -2.046788322830734419 1.404629564466757019;-2.6724624602808169094 -2.2603944407772171843 1.3922280200462502364 6.3520305536927574863;-0.21656022165328200901 1.7762408939501905802 -0.39044132203206011189 3.8546491503766118214;-0.45662873880301668716 1.5970209868367306605 0.11717652576695640476 -1.2932110524748778868;-0.15451565217480911496 1.1735482055240586963 -2.253441339047422165 -2.8996649577447728419;-7.4495395243007136443 0.26660230423516789733 1.74682218222671648 0.0011050052736615583078;4.1501586905241234504 8.1254587463073040254 -11.07276840225368808 16.348365898137355856];

% Layer 2
b2 = [0.34287948249717897786;-0.98978894557407670618;-6.2015232615036177677;0.22367375948415221809;-1.2398455993673960229;1.2085994184840684884;1.6365797905409522617;0.9336013859190330777];
LW2_1 = [-3.6833625139649206481 1.062262692850962198 0.37551410953778163737 -0.76790739077803660262 -1.130883697376508179 -0.3846671909940756473 -0.38192008666729015953 1.8054940427355217203 0.35477405920920007665 0.28445932403817530965 -0.26017399213146374937 2.5517736698266442197 1.1575835983883082658 -0.17861099875036465234 -0.45929417068703576321;0.55514372166369707617 1.4936034081156601694 0.54120708928875416177 -1.5203129798827341723 -0.41036537845971948757 -1.4616090852837779757 -0.085794059541502168398 0.9205746126823148856 -0.050618942490920651456 -2.5384192558685696461 -0.14708371786904342327 -0.88179734125714615001 -1.1027845301457437355 0.26511467923020359816 -0.003059827016709374542;0.94219330088517738719 -9.3007570331088675886 1.9703515648903153767 -3.5215704925957838078 4.0963886703337735185 -0.99882014555759701668 0.043700230785436333658 -3.0603489936653676118 -7.0924347644088978626 -1.4580277263563947709 -0.016310942089281958711 -1.3678817453225449174 -1.6086955593010414667 0.38837632954807715935 -0.55598711787441357224;0.14136656616751738791 0.97857831437201237001 -0.15596907980058638543 0.263966049636650546 -0.33901444331420710343 0.27328214013144669359 0.01026345644528262567 0.14246672455991621353 0.051452682016081600913 0.0065204753985600005101 0.39178336268251973129 0.17045815571865260973 0.28907345460043570862 0.056422794242854151792 -0.024170277944137300019;0.063469848637533896052 2.0379357590919804366 -0.26285141170198211835 0.45130634110313411211 -0.49380458451104963791 0.044695138363406210213 -0.14741997520029603841 0.043019146999805545073 -0.10617183224777647366 -0.034014826387500286808 0.14871639667261984941 -0.22416013236791368368 0.22690477771550934816 0.21457074875475190545 0.058773871864257587472;0.17826929936076268968 0.96073275304453154 -0.32773869192601084999 0.76450330103665242731 0.15213266534051372858 0.14080055740763541827 -0.021827424825380890155 0.034506598733162405224 0.047552002909458858382 -0.014533820457387344391 0.17481292863990138819 -0.052140830378082654584 0.29792582744902712522 0.23951174468533398265 0.0050990121132648913785;1.1070894101035380075 -1.4228001764082962577 -1.4135318602791302478 -0.079108312881070508293 0.11924660119020370763 -0.87970060935689142756 0.22632024624037183624 -0.73474616712877172109 -0.43061954805041458005 0.13819657181175243332 -0.83947302046500416051 -0.53134646778282434987 0.053076126442168268527 0.6471123475088746968 -0.13583151217136726907;0.020187627830068520518 -0.45769044455212681832 0.11815712946175928322 -0.23529239770509047247 -0.077387408768494009292 0.30647413936773992837 0.10801380179915191782 0.17360602661804214186 0.12301904524592789658 0.015970754617157512795 0.36966709762218802338 0.27030588499384045065 0.10535682211823060861 -0.10444051532184937814 -0.059547051605112713557];

% Layer 3
b3 = [-3.1370384399190882618;-0.91858757873400076477;2.9024471088933410101;2.7124553522938530392];
LW3_2 = [0.37861739267624594518 0.053329182736790430031 0.0084324829168163362159 -7.4397026606419940364 5.0490304185854579799 4.7918308775677189715 0.83456449592365500312 6.0673097645764526575;-0.35710104164045120001 -0.5508445912309614112 -0.50153666910743832652 -4.1192316934293007336 3.8293297884961083888 1.3195109344482733871 0.10909130123015571556 4.2092153419701823225;-0.18700610642777179549 -0.053637711058042179812 -0.14431295228450422008 0.84786192076812216811 0.90349068852918523742 -3.4579806969383457549 0.087450809293064563077 0.37145561592502324144;-0.2580527458469469293 0.054088410867282180061 -0.025824266440116094845 2.9721622610137998777 -0.91282230724958757229 -3.5437620899926214335 -0.20830009366519891545 -1.1976135892587624898];

% Output 1
y1_step1.ymin = -1;
y1_step1.gain = [0.807088816911435;0.836879258419127;1.24274786314385;1.25316427979481];
y1_step1.xoffset = [-1.0465476448263;-0.458413185817906;0.309971594150446;0.309971594150446];

% ===== SIMULATION ========

% Format Input Arguments
isCellX = iscell(X);
if ~isCellX
  X = {X};
end

% Dimensions
TS = size(X,2); % timesteps
if ~isempty(X)
  Q = size(X{1},2); % samples/series
else
  Q = 0;
end

% Allocate Outputs
Y = cell(1,TS);

% Time loop
for ts=1:TS

    % Input 1
    temp = removeconstantrows_apply(X{1,ts},x1_step1);
    Xp1 = mapminmax_apply(temp,x1_step2);
    
    % Layer 1
    a1 = tansig_apply(repmat(b1,1,Q) + IW1_1*Xp1);
    
    % Layer 2
    a2 = tansig_apply(repmat(b2,1,Q) + LW2_1*a1);
    
    % Layer 3
    a3 = repmat(b3,1,Q) + LW3_2*a2;
    
    % Output 1
    Y{1,ts} = mapminmax_reverse(a3,y1_step1);
end

% Final Delay States
Xf = cell(1,0);
Af = cell(3,0);

% Format Output Arguments
if ~isCellX
  Y = cell2mat(Y);
end
end

% ===== MODULE FUNCTIONS ========

% Map Minimum and Maximum Input Processing Function
function y = mapminmax_apply(x,settings)
  y = bsxfun(@minus,x,settings.xoffset);
  y = bsxfun(@times,y,settings.gain);
  y = bsxfun(@plus,y,settings.ymin);
end

% Remove Constants Input Processing Function
function y = removeconstantrows_apply(x,settings)
  y = x(settings.keep,:);
end

% Sigmoid Symmetric Transfer Function
function a = tansig_apply(n,~)
  a = 2 ./ (1 + exp(-2*n)) - 1;
end

% Map Minimum and Maximum Output Reverse-Processing Function
function x = mapminmax_reverse(y,settings)
  x = bsxfun(@minus,y,settings.ymin);
  x = bsxfun(@rdivide,x,settings.gain);
  x = bsxfun(@plus,x,settings.xoffset);
end
