function [Y,Xf,Af] = net_airfoil_tri(X,~,~)
%NET_AIRFOIL_TRI neural network simulation function.
%
% Generated by Neural Network Toolbox function genFunction, 03-Aug-2020 15:58:06.
% 
% [Y] = net_airfoil_tri(X,~,~) takes these arguments:
% 
%   X = 1xTS cell, 1 inputs over TS timesteps
%   Each X{1,ts} = 8xQ matrix, input #1 at timestep ts.
% 
% and returns:
%   Y = 1xTS cell of 1 outputs over TS timesteps.
%   Each Y{1,ts} = 3xQ matrix, output #1 at timestep ts.
% 
% where Q is number of samples (or series) and TS is the number of timesteps.

%#ok<*RPMT0>

% ===== NEURAL NETWORK CONSTANTS =====

% Input 1
x1_step1.xoffset = [-10;-10;-10;-10;-10;-10;-10;-10];
x1_step1.gain = [0.1;0.1;0.1;0.1;0.1;0.1;0.1;0.1];
x1_step1.ymin = -1;

% Layer 1
b1 = [2.007583845572642911;-2.4664286748330574994;-0.8972064706976310422;-2.0471516714684905303;2.1855074706999833012;-1.244334484340753999;1.5494465742695426869;-1.3030023041363125724;0.78367643757521054937;-0.75472442220422419901;0.39410305608606155392;-0.63370702494946251626;1.8888776419573871657;0.49979833941772333628;-0.23356168646070007977;0.0094193588582995556313;0.16164994307563912423;-0.33407099582194721421;-0.34531749553696150512;0.063318103404447656501;0.60046315818629680816;0.58799820197276742029;-0.53710800526514512754;1.0718092332529571831;0.96145176202505366891;-2.1048470770236686889;-1.656540113565447836;1.3936605180020400496;2.0440501187982547115;2.6354547714415019755];
IW1_1 = [0.040623885964276386373 1.1802948697763440133 0.30970683404836274466 -0.0040008542835182833719 0.13644788022387457915 1.5671442489985287772 -0.98640334938666840436 0.0054793491174122193818;0.31715469792598310894 1.8088597769856198383 -0.12888461097911971254 -0.022688455429871606794 0.25835356791017377587 -0.48257105067705707846 1.165833188707247503 0.12210563608080254872;0.014166131799292200344 -0.69349164619308012458 0.5834543822459195006 0.084921290079699340847 -0.012625103476419846649 -1.2842482966662853716 1.704046168114279336 0.08246337976814621662;0.13844303956539510958 1.3029696082016477554 -1.0943148988970752278 -0.060500071579798947452 -0.14247622983156615906 -0.91359453696809023171 -0.99547825546515045225 -0.14164465847967278034;-0.10810270613976467879 -0.37429831727051915413 -2.5358795461918726133 -0.29474081266977247839 0.13239373678117200006 -0.27864130865213110333 1.0054956055440966711 0.20998280748224062986;0.12291960208974746227 0.91263855510099523016 -0.51319617843140763469 -0.0027690750827144626316 -0.19337175774301432196 0.31531386200636801753 -2.1622921485331745295 -0.2612892593974954214;-0.31464895331726666639 -1.6876708800692254986 0.38936991708549545388 0.019610799133328537386 0.34881614109359432296 1.2588004436730737545 1.5182650526090457621 0.34101805985953348443;-0.018734549551731424083 -0.38085258363987628538 -0.34412156494440948595 0.5165864541908181673 0.69841251777637280984 1.7530938269199920487 -1.6223694606161978005 -0.81615688052553947429;-0.039397798363544338229 -0.53307150772829603458 -0.14540756583770042543 0.048122965241054277419 -0.049631195752716607272 -0.84187687503346952944 0.57123019222980142562 -0.007858396127511293322;-0.15785120684162071147 -1.3919013643006785674 1.1112550712371351835 -0.10589414331094379462 -0.32960847229730438901 -0.94788543267172642448 0.27430034096838074031 0.21219303153374161064;-0.091706282765787655586 -1.5667902980124555068 -1.9200554257134814229 -0.46046454826427618556 -0.32626930392649261536 -1.7437109016677978524 -0.62336244897430515 -0.054454704428331258959;0.63246482250398239344 0.075326014887479628146 2.2119470508919505392 0.27022733828480061113 -0.64698582202157162158 -1.0749721346224623275 -1.2560855018245613568 -0.78817455766504163073;-0.093004623315780687864 -1.3164812939734322761 -2.689380709656801649 -0.44002606480339323536 0.13190285502167703457 1.1666691171135330496 -1.0179463922579559121 0.14210078043896323674;0.31084866391659027318 0.044196252524064207068 -0.78207543918695487939 -0.058623763596417292898 -0.48588967708317643002 -2.636200788413977314 -0.76629491908484326235 -0.58426173694287297788;0.13302770767108795802 0.31932800982488163122 1.1400341541910099519 0.077998570486743620811 -0.45970303406162038584 -0.92054374265721727877 -2.4490561608619176859 -0.56659345283729134479;-0.21473266168408183807 -1.6113740273866030694 1.0271079342379689781 0.096461617770846622144 0.065883459338519648196 0.21508091233325093983 0.7142817643470223965 0.064067515595198465395;0.22926601480992245263 -0.53369527158239138398 0.56168536297970705906 -0.18519870899716198154 -0.22920170109947049508 0.45108416534751594185 0.43589088536878539681 -0.095769652671155197643;0.16377540498870329921 1.9923042280322775799 1.0447963700612503679 0.41807530151763927506 0.2461036376766265743 1.2020262921483566565 -0.19964664441071106049 -0.13143712545361857513;-0.091640496658781267492 0.31407042269903273635 0.96727717137930679936 0.14670625856491781303 0.077699833472584467486 0.46284696898595528713 0.018980759930864850304 0.072256549805022371458;-0.28896805129802199952 -1.7005954766239628206 -1.8929440022931114385 -0.62728975034411260658 -0.079901912322709642278 0.46963780534775795283 -0.17929488958221964645 0.39822544559160755195;0.69245322758253491369 2.5605109638721912368 0.29371936731032383117 0.070755579853223768416 -0.4175738013101779611 -1.7155879014368737856 -0.52489044502710302531 -0.43694969623605911524;-0.58955145243557161017 -2.2587682128087576139 1.7321326689589837677 0.29068784898740290812 0.91049398115926294395 3.4998637352452939275 3.8664832128290105295 0.84311650213359468076;-0.021564000414731682859 -0.39690934497422586391 -0.94527993503014517973 -0.37306938886857271553 -0.31447040265685705096 -1.4849784042183697963 -0.0072894506844805185414 0.099946711987608349848;-0.19100187819722735938 -2.2540311862091551021 2.4841701311293000742 0.37706146298846149323 0.044322209038238635781 -1.3493608980682660903 1.0734250404150911251 -0.076759416412305159216;0.14852448362342984822 1.9395202179656250152 1.3332159015769071697 0.49698013454125744559 0.13595043598023912046 0.51938386182649309841 -0.12063019491811824424 -0.12954710675728567382;-0.29251482470236767064 -1.1477584570335472858 0.8805543041476597832 0.11212643831270417694 0.24989461152209857531 0.82899763012164584541 0.72492655713096387782 0.27079694268690363002;-0.39309213541479048892 -1.1172069199347833823 0.96356727408761477793 0.0090314663348905130369 0.57479018574316853574 1.019381031611082733 2.3024390158386518479 0.66971662700367973198;0.16499067490926389024 1.6806472224954551731 0.17515269035905553507 0.1299687384234225751 -0.012911154263671266451 0.34770924394963015347 -1.2015158907481493511 -0.16048660033958447868;0.093146427497894077052 1.1302254571465160105 -1.2240746057455753615 -0.26360912042574646819 0.34060323456857555247 1.4801339842744740682 0.5133691164429957654 0.38219741432025000627;0.16571213476931906383 -0.30596786962763777851 0.19706067707604463246 -0.010070313820981433017 -0.48827885380925523107 -2.019170724913108117 -0.4530857446183245707 -0.31463202941784079725];

% Layer 2
b2 = [1.2861067037419795511;-1.4180871595281181463;2.2362358199101106671;-0.99056338988381853472;-0.92988108968690041944;-1.6256940909169195209;-0.10877708656960635714;0.0045458630055678714982;-0.70111362433013701967;-0.30680979612627873321;-0.91348184011338873223;0.73105766757864276695;0.74587447279971752501;-1.7588877315260074141;1.587661973750024158;1.2779555307021164268;1.4433543303412070813;-0.66977807935476219026];
LW2_1 = [0.42558050794684976204 0.47532488766865232943 0.38536831180715130918 0.8994558945121752247 -0.6254907099576837437 -0.84896333309117633092 -0.45132561335247090017 0.20539999822222274051 -1.3841995485861122717 0.21148822631882027712 -0.1407767206598547205 -0.090729583304417396605 0.52029543657303434223 -0.12892744231664682308 0.15445997884514020559 0.098248735359783068155 0.041355717533038717504 -0.39737257891447297364 0.27964554391457013827 0.31577030818864276762 0.011969404020396758395 0.011385630626619923367 -0.029983885938557830464 0.50611219480347358068 0.12828112232612617905 0.14498547950938020512 -0.16942100219238112602 -0.54834951834423362182 -0.42902451076059833213 0.37200206146668540752;-0.33977941279291606902 -0.16885149003370639176 0.052647079534909636822 -0.044301697914430997194 0.17133289400660559054 1.475242957306855951 0.27331193895132588345 -0.31844109410071635979 -0.50746756490305700016 -0.40280441936532634939 0.34364276241569491344 0.024566715953769108216 0.35313070019331310734 0.35972450644738740433 -0.039077195591138050301 -0.021213243175764416593 0.042683770374689858351 0.46627424854232080165 0.37342275709147015883 0.20833517963600725609 -0.35723210339031341576 -0.012740214669382243784 -0.28400186157382523167 0.70164888073665965251 -0.10295323334965546247 -0.081251725553226419874 -0.18240122994946270096 -0.17371919549927750115 0.46034187137737986317 0.48058249407309244772;-0.68541032806529755828 0.24628707353141840453 0.42515141263379085945 -0.090284884172556700843 -0.00012792921255048528371 -0.14715931180089059094 -0.080589847763146149617 0.25123760402728306795 0.14322177904407437654 0.24027367490389350824 0.22454334196433445303 -0.14587341352506552616 -0.29617601454836101071 0.206522797125491403 0.052199320029195986348 -0.061215036537084516199 0.091683572037553368039 0.84542572073624278062 0.069678546880205680103 0.42052823451643084329 -0.095841719768521918543 0.026369828741766829922 0.17657499815018246059 -0.23047613376169903687 0.080129135691180825019 -0.062993799463400210192 0.17695486280101127563 -0.012191781133205095017 -0.016718807212849091243 0.15452482187608884701;0.30503151298580699624 0.14924822574700613576 -0.20110916211066154347 0.84376248906382189663 0.46610038137899473254 -0.62014183682597545655 -0.72684359508622398138 -0.31588692368165677271 0.10212583968248253874 -0.70935153625828262225 -0.14572580687067218652 0.44899046999360608945 -0.5938599971692977153 -0.49097372489740220836 -0.61065224786850946792 -0.41335827323586943338 0.1429265027674173627 0.3759011947197350989 0.55164258710725777579 0.16860856256209721948 -0.5969055745590414741 -0.84039259281632916476 -0.31697239388982800801 0.54834370504956164716 -0.54944784131630430846 0.17784871372177743498 -0.097546402524802663936 0.060491057394969099947 -0.019411546411669863138 0.4829794189025052864;0.78306386365249014414 -0.45930513260551919519 0.37344750074748900293 -0.2560867227600600593 0.66334206652344374078 0.026044244603312085434 0.0949785891006715427 0.32445982454950889062 -0.58664268019793341935 0.12597682698962955894 -0.65887341446227409847 -0.034376741399146412692 -0.091451861194116024212 -0.19596679114505644037 0.22026261279030898144 -0.059354765637549641855 -0.5236224314472306407 -0.097625967770471083762 0.12734303132239016554 0.80588050072245898114 -0.70540281555677253333 -0.38157403279482599023 -0.39443078350252952502 0.20410768264093356872 -0.19683561170518171224 0.0095094995737240433503 0.50901280271572857394 0.37230524798289948984 0.31767496722902577311 -0.48362681417574726606;0.17891285144645310834 0.47735578092062641575 -0.12816730599847761529 0.29385960128236998656 0.13752745317331932506 0.32530101849553272331 0.32134924303622852682 -0.25874078531362015854 1.0437694390598808436 -0.38391552086016167422 -0.38546917100215410956 0.21474627565609624713 0.37890109257718945779 0.1659765245776606557 -0.14243192547080396615 -0.25667994074351008216 -0.10813143543221177822 -0.82043067827577587092 -0.088055821197007722034 -0.37624474468068597188 -0.16585286058665507647 -0.037785743100555879703 -0.15045430081363239672 0.39064817303883597743 -0.21665742083125583139 0.22037369089775310504 0.1598644480030993742 0.010580042486186293921 -0.045304724313866083507 0.049129424522362921679;0.94623149159736663627 0.70428620960240995164 0.11867144368246806962 -1.1286901106869231537 -0.80729488560914808293 -0.14087467951594240256 -0.23843442737872605486 -0.11764386941031194922 -0.79139633079859939002 0.30480230345034087236 0.020992370734129687376 0.12011668288089800971 0.31022209889376561875 -0.0028107495757780081441 -0.25432217538572360338 0.61268257050429197896 -0.2351841190820989913 0.61830945841428386345 -0.82053067369856869107 0.063847565499262404209 -0.42627410865302173271 0.010140651676971534911 -0.20844899079845236045 -0.31539877355042211793 -0.074062348233437921841 0.51358502149201257225 0.090111653007369132973 0.99547551012885360233 0.10297498895371701155 0.1397308506214604007;0.47621888406971157881 0.23982618167802996489 -0.54349030084133354013 -1.4513631411548111316 0.3380737926220883649 0.34623430085630213515 -0.10631526938887266021 0.51053295056709346866 -0.40309628272806374838 0.14578818068118051809 -1.8048217180997314646 -0.61106576564275416619 0.23593031653213616949 -1.4438265631412035006 -1.1523010312326302795 -0.10433423817214834695 0.47885467187678854017 0.95610615215367755759 0.48949649245970233702 -1.9443206726035797693 0.031380088315760487627 -2.0823741325374647282 -0.46514291815649005946 -0.27271067256951864177 -0.62212730952623618297 -0.27408894576287945455 -1.0905824990549297659 0.5266909834076813901 -0.35060651383620167199 0.55686062387077728264;1.2290298360363975938 -0.14048156991720772702 0.37555207704987314532 -0.45300425564166657555 -0.14312486403032548266 -0.65830879269124875641 1.1129658112954019522 -0.091456724292622110228 0.073880068537344162349 -0.24480738990883504913 1.928256751110280165 0.45141712803867312109 0.065138882639547618369 0.76748651835672410115 -0.53315779580468170007 -0.18577289914769445911 0.060639682311748134558 -0.73552721110110430569 0.063176466914540541087 0.068283775626233791933 0.12353319831822262564 0.89555060938920016955 -0.36813045325209203806 -0.26111489561840123264 0.38664019579800246174 1.2802327861864635228 0.5530741900944921019 -1.4046644505223855326 -0.25426395367096038536 -0.34760320217301465817;-1.0913887283730845379 0.48230922113774554738 -0.14110516705405889981 -0.39651914426992601603 -0.38798151359691540607 -0.064386015273138100246 -0.43179458504146911446 -0.066099220940616723596 -0.12533111826304865755 0.036859446803290743522 0.46045938501266869824 -0.18675510448242479966 0.45035588297327494578 -0.2568535568254324275 0.066702650744192584775 0.081234137962387500953 0.13401968496515742624 0.18033024943928582795 0.01060046153329683577 0.13671876984987246795 0.058861779974927627701 0.11746347230650992788 -0.3401044015756600758 0.36486804836082897818 0.39641242669739740201 -0.32240581698504999775 -0.57116742880028470442 -0.39157699419256331019 0.30439021189471593409 0.11378118860755399855;0.18221351680523098504 0.090518415503397370303 -0.034046053975467775732 -0.52236628173004828746 -0.061557999968198932883 -0.52377966740019632486 -0.24470200183957671602 -0.01537878582772914289 -0.87944198345126789462 0.20281725582460580215 0.25443430623366197763 -0.15908476676405783334 -0.30619290205466287436 -0.030894488318836454965 0.13648996917274558438 -0.081212018047254391773 0.044736853929517192419 0.35915523417450184729 -0.024987144873670520673 0.025854072710414358061 -0.082690893411584989736 0.1034178615351972752 0.26299318489440398627 -0.16350956175067654641 0.31101095496644309835 0.15369215054615409377 -0.10731282808799057216 0.41255069705668367952 -0.00313589475843106813 0.020887223288689908685;-0.46738612883566005296 -0.23417790693338505492 0.23089618277257301093 -0.390251315959609546 0.46720544287562065788 0.39025808585414295537 0.18673955616228657406 0.230359545428086121 0.97340479928975154333 0.25004502964237840246 -0.0033635054755889902053 0.058973929704946713437 -0.77608851210514984142 0.11368025091941448557 -0.13225307929145768693 0.066690415049079812548 -0.32805048245122020445 0.14546352580274130029 -0.70160868286583522035 -0.14883371475836787434 0.029827172176500049705 0.036467110353969281467 -0.1522079957621206292 -1.3608497267851027424 0.11325794684197384998 -0.16021417567500742529 0.18058709037019621269 0.80151647255821389937 0.41627161559332670482 -0.22662547622801215708;0.15892914302588154185 -0.15816339466654158463 -0.13370471134133729563 -0.28280915302218995189 0.013800139203580336078 -0.1777969036633246791 -0.57712792071329355181 -0.30554789251383501769 -0.08130050899318053137 -0.0062891640255896205658 0.10750495324599859681 -0.25157646710359510278 0.054519743674677961787 -0.1278369021298725039 0.31883490190788321694 -0.72913961184340159161 -0.14615438274166073218 0.10043411525824709474 0.41374174813907660386 0.07770089338934116352 -0.34935516087284118614 -0.022788372416880073312 -0.14103644470475570905 0.61082527666730013216 0.064227074256751337522 -0.13557465682926822526 -0.28014318114068698096 -0.17485604150551023461 -0.62835259227348794209 0.12492100652212322076;-0.36787899842906812697 -0.26240874460948204749 -0.061990127944165286655 -0.43653049978184926827 0.38665657333190261991 0.18345631640749837654 -0.35009245836236502214 -0.2392962631406096996 -0.25066220347882661734 0.07897718151341456827 0.0081892683345179927146 -0.11171616162876847611 -0.11937979574540377725 -0.34906400768954037872 0.39557152459028194214 -0.6385911529059632441 0.029623733117116024527 0.47643143737779813929 0.16033452647356707943 0.13265492248705623712 -0.81044286412619948035 -0.055310005298958880848 -0.044464755658310442521 0.30462710003095749833 0.15615976927545244246 1.6929231472943895298 -0.64358049749611745405 0.6097320453531663853 0.20415008493036640447 0.74288574032604459685;-0.29912277052129881971 -0.45592390961218381973 0.58216391773571363188 0.56358756892547379191 1.1994898089313075218 -0.41734393197266628217 -0.47404043449019767076 0.3118093888914348355 -0.16859917101109575532 0.058891217238825330216 0.37764232258555402444 -0.092610177675289243049 -0.914028047827076362 -0.63774840514642450184 0.41080454485927131447 -0.39162002774557252982 -0.0041771077665156697289 0.33364263226731616374 -0.13219382176370991777 0.13904319405766074613 -0.29503622967679282718 -0.27007323787951365013 0.23289388467554816842 -0.27721161680077455181 -0.077549840913908998918 0.13419403842045374287 -0.40215556566733545729 -0.56556507427136804012 0.16608052359691752309 -0.2923407533634068689;1.2335195555376452514 -0.95248678883203186096 -0.32325878742148073108 0.76432536700260700346 -0.26187465534902831799 0.13917257301281815707 0.16264275492618890384 -0.37200710553043131457 -0.18643367381864694998 -0.2176615748706721698 0.016103405591045213963 0.089428949386243739017 -0.19451483469645358682 -0.21195769391730820419 0.29051852054510995949 -0.54228190193015002318 0.042363137198144433515 1.8871614175030753113 0.3956064771907629174 -0.049577364898495256129 -0.29793301295681789975 0.028731066693547521046 0.24969010992760093393 0.51598266434861161933 -0.81485892570251106104 0.25855878328056575155 -0.10539669384584163248 -0.15476081621952531009 -0.52782686582290871957 -0.16429480804761201207;0.16782714900132064684 0.091872682854147902365 -0.0011593409128683824713 0.048000536986705116815 0.09129375370430900527 -0.14483325065522476005 0.56107326979358884689 -0.17763701327967257315 0.063803855914125809368 0.45286989812245065368 0.040711599734354411706 0.23197261701861693339 0.13199204746535481148 0.15671231493452714156 -0.54410431483611687575 -0.074605274840369509293 0.02371108586420819439 -0.079907679736743730814 -0.0034839313418078702092 -0.2352709581255794935 0.0039654184482228269776 -0.07724250808993235462 -0.49522063380201064575 0.12881048060893485196 0.33282923871056185883 -0.099259600317933141533 -0.085709852060549651664 0.7521795962136990088 -0.25334875746897850268 0.26771035318799968339;-0.072681547779178554136 -0.45877075701466135671 0.47969066893494166637 -0.14606124431514350137 0.66355211417488701997 0.66254734381315549818 -0.082661801505451118488 0.046744711572505939778 -0.15643340957710560879 -0.068758525252172048026 0.028834459567281558318 0.0041737109512191361907 -0.37543997948635970952 -0.18308619879223544946 0.25782179693921158936 0.18112234538623361857 0.20884160396554471428 0.024097938587297050572 -0.0024949800448949856733 0.039745159358376053182 -0.39886798869777467802 -0.094910453439759942529 -0.2724504977907818426 -0.2969270562745615627 0.02087684239826613844 0.30214840244501112165 -0.27028565256905245917 0.22408993313577679762 0.40541413219230093556 0.1640777829383091857];

% Layer 3
b3 = [0.013962933124781985381;-0.25083966532956591955;0.72864269228790778943];
LW3_2 = [0.38604572582374735434 0.38705640122357892752 -1.0266211060737808758 0.059967667695535076255 0.00065204228365765056624 -0.90538720831210595108 0.030544708035399690399 0.0014350189383510653963 0.0018189393158568947784 -0.45919023580544260366 0.64104660962233595001 0.043013107712798530347 0.15148121233781647321 0.10105786349052123252 -0.10675083168491036889 -0.0012484817043026995645 0.64982022470999201147 -0.12865569516503877479;-0.69117348647459975197 -0.32082530972359263322 0.28130014120705948422 0.020417564245324065775 0.0004566125253638047719 0.060389983558887555537 0.11334314928065390704 0.00079565425921326090458 -0.0013244894110969276414 0.10799268806652125019 0.29692177375556499941 -0.91847610456028827564 -1.1944037455163036832 -0.77873198094059847829 -0.21531713740687632996 -0.028297959415713044851 1.0420718381849787271 0.93411169850236464018;1.0635526510371136055 0.6027325102828217096 -0.22833010938070835705 -0.90600452091295891055 -0.91049986512192859767 -0.07951516560466129202 2.6419135885668794117 0.85290512996563483394 -1.1094309706133163029 -1.9480692003725208483 -0.62660891465509360732 -0.60549753377468362725 0.82343260889243463652 -0.65894809782859098402 1.866109039357307875 -3.1975130911872531314 -0.34420223772603203427 0.16552664500146399562];

% Output 1
y1_step1.ymin = -1;
y1_step1.gain = [0.1;0.1;1.634651352754];
y1_step1.xoffset = [-10;-10;0.000259515743353245];

% ===== SIMULATION ========

% Format Input Arguments
isCellX = iscell(X);
if ~isCellX
  X = {X};
end

% Dimensions
TS = size(X,2); % timesteps
if ~isempty(X)
  Q = size(X{1},2); % samples/series
else
  Q = 0;
end

% Allocate Outputs
Y = cell(1,TS);

% Time loop
for ts=1:TS

    % Input 1
    Xp1 = mapminmax_apply(X{1,ts},x1_step1);
    
    % Layer 1
    a1 = tansig_apply(repmat(b1,1,Q) + IW1_1*Xp1);
    
    % Layer 2
    a2 = tansig_apply(repmat(b2,1,Q) + LW2_1*a1);
    
    % Layer 3
    a3 = repmat(b3,1,Q) + LW3_2*a2;
    
    % Output 1
    Y{1,ts} = mapminmax_reverse(a3,y1_step1);
end

% Final Delay States
Xf = cell(1,0);
Af = cell(3,0);

% Format Output Arguments
if ~isCellX
  Y = cell2mat(Y);
end
end

% ===== MODULE FUNCTIONS ========

% Map Minimum and Maximum Input Processing Function
function y = mapminmax_apply(x,settings)
  y = bsxfun(@minus,x,settings.xoffset);
  y = bsxfun(@times,y,settings.gain);
  y = bsxfun(@plus,y,settings.ymin);
end

% Sigmoid Symmetric Transfer Function
function a = tansig_apply(n,~)
  a = 2 ./ (1 + exp(-2*n)) - 1;
end

% Map Minimum and Maximum Output Reverse-Processing Function
function x = mapminmax_reverse(y,settings)
  x = bsxfun(@minus,y,settings.ymin);
  x = bsxfun(@rdivide,x,settings.gain);
  x = bsxfun(@plus,x,settings.xoffset);
end
