function [Y,Xf,Af] = net_anw_tri(X,~,~)
%NET_ANW_TRI neural network simulation function.
%
% Generated by Neural Network Toolbox function genFunction, 03-Aug-2020 15:23:18.
% 
% [Y] = net_anw_tri(X,~,~) takes these arguments:
% 
%   X = 1xTS cell, 1 inputs over TS timesteps
%   Each X{1,ts} = 8xQ matrix, input #1 at timestep ts.
% 
% and returns:
%   Y = 1xTS cell of 1 outputs over TS timesteps.
%   Each Y{1,ts} = 3xQ matrix, output #1 at timestep ts.
% 
% where Q is number of samples (or series) and TS is the number of timesteps.

%#ok<*RPMT0>

% ===== NEURAL NETWORK CONSTANTS =====

% Input 1
x1_step1.xoffset = [-10;-10;-10;-10;-10;-10;-10;-10];
x1_step1.gain = [0.1;0.1;0.1;0.1;0.1;0.1;0.1;0.1];
x1_step1.ymin = -1;

% Layer 1
b1 = [2.0017182835227087523;1.8584335520831765098;-2.104596818094098154;1.9197917479877357749;-1.8993260127682232152;-0.57692563892278081461;1.549366085894141376;-1.4280397255118340016;-1.0694942564448373101;0.96856141830319719688;0.70932613204626226988;1.0868229327039251597;0.4885517640423362451;-0.60756018371798270472;-0.27194106018880903619;-0.16572458355012498199;0.47430103027511710811;-0.71993959497521353708;1.4260557508623195044;-0.8517442788070723747;-0.73932282891786715862;1.2622697638134623421;0.5438812107794367412;-1.5358823091887650047;-0.99538378237761959699;0.71469824383691382685;-2.1068633926740991669;-1.9122547731262176107;1.9754060735067247023;-2.3899212603107264918];
IW1_1 = [0.051282952041572904545 0.54329682674336809978 0.43895801143260743116 0.37143848837070275737 -0.72626787352866006842 1.107884100175479114 0.28181278158578915161 0.3552150182742610518;-0.16730647619058261477 -1.5659061284339430564 -0.56909236500266224823 -0.4633583655148896252 0.066787835155567742973 -0.27728379832239358205 1.8968108424040404092 0.80876085136459030522;0.021531838470032614585 -0.12993738133700052928 -1.0973296923840745176 -0.70404603063559589859 -0.58037378940254702453 -0.83961362456254562403 -0.32751312324456838265 0.57990684626903798993;-0.91055700818978335676 -0.52777504982292255953 -0.51587377643969101193 -1.1441705857023269921 0.32885300186443316983 0.097331079440980322603 0.15147767704533088295 0.2592460583991351708;-0.10045960971797636418 -1.1943080590190371382 1.3815236044608680821 0.38126403024271304787 -0.33756655528546297695 -1.2798899090346280705 0.2788659224019712779 -0.051290401332677600099;0.015329808516686511607 -0.45134422246653749244 1.1049806049830175336 0.20811917960842776787 0.11483514308063347276 1.1921835240400109335 -0.47052648501185678764 -0.45464947683585094085;-1.0364234602489614812 -1.1864705835805460232 -0.74937206003648870745 0.094087171541329131519 -0.17482556116943931412 -0.60682955006667382847 0.091430041813094053982 -0.41285137139889538371;0.60581741077098316683 -0.22854718425700143447 0.21407197916635692381 1.0444163590196529068 0.84439522755484253125 0.49842142679773304703 -0.36167518016071548148 -1.1897957503979739169;0.48167924812814727487 1.3029832791970910044 -1.1061039134329360145 0.7504823366781672167 0.70843579999157380023 1.1015443300531495563 -0.69659589469131366624 -0.81209229316558695366;-0.58615566113550221505 0.10664615273113488281 0.97611969872040038609 0.136857499175541103 -0.87067236523639612855 -1.4727213500000129187 -1.5669219909942051494 -0.16448482181120968604;-0.33007183325038497168 0.50372692824687903546 0.044284325146527615813 0.36171782828071774585 -0.48717987112097066449 -1.7818212947920262224 0.50581222131911096618 -0.32804681963609089168;0.23991389619473751926 0.81379521466937188023 0.72534274308973334389 0.30225178774952804472 0.095091787979483005655 -0.072422770078920617465 -0.41616323318815728882 -1.0360655599430181883;-0.62662688313165071374 -0.0045936630375098767148 -1.1652993517222396402 0.46587152358309158462 -1.4359530952982966223 -1.7893111346879835288 -2.0428814773759906842 -1.8585674738944844009;0.37694423526196518814 1.9933145324966821121 -1.8562009817364557573 -0.4651597368409696176 -0.57837057107017741941 -0.9677717774502382353 -0.63975729184882912381 -0.21532215666024637213;0.77813098681613313001 1.3976851996048764715 1.0766241546526089667 0.67143249016846440202 0.37136782425568448662 1.1507461401006136015 -0.58180129437114502799 0.26956034540439965941;0.41927407574138314539 -0.29018101466887535889 -0.020951935976172741255 0.22362242011657115781 0.1092092641122152652 -0.29419975044554180776 1.0900769983379992034 -0.51592587844638060357;-0.13511710202979168582 -1.0130522741570442413 0.3262525842382025254 -0.12333525953364940508 -0.18233193926464674739 0.2122140502233899606 0.45094862677547736807 0.22422436533082873433;-0.91858544221998916779 -2.5263287090685651037 -0.5357298084523861581 -0.14388757487053538409 0.16735117614901073857 -0.030244592158313390873 0.11019943209586199884 0.80327519538714386993;-0.10152903775889887683 0.59605005953002465624 -1.1384477484333843655 -0.16237956619339560804 -0.19013914702567386028 -1.5763439478929277549 -1.4982536811334905558 -1.1831215442894389422;0.17891796177113286626 0.42896325842557886387 0.16073644053590543934 -0.70250795043840086329 -0.16531722366297518789 0.1842178771106347257 -0.44322565656660989353 1.2497846136065735578;-0.65745739567954009086 -1.0685218928372446356 1.8660932827972833703 0.13863905488757327644 -0.003398344989949882676 -0.096390593896239704086 1.0337385681026958206 0.11140799260772515922;0.62126471662569104915 1.8592908063243380745 -0.83164401173064250727 0.012362019463693833463 0.28984789522567455666 -0.088961733628630496051 0.83047515498608526219 0.49240984268276194458;0.67173742650171386348 1.5534892134073290393 -1.7080766763862371693 -0.067494518397266292653 0.079111383889646780254 -1.4384053473340796536 1.5487744677852957054 0.17995167667429873282;-0.23138213100722920812 -0.89667490249486148102 0.32996796522130555918 0.68149997491942437833 -0.10545545075446186023 0.11260392223639656417 0.60430928406881923021 0.93668456529240773367;-0.1371285728606211618 -0.012701848660277551342 1.1977653744386889123 0.18205320477532696555 -0.37939553558828431612 -1.5001194699782813835 0.5864728561851401123 -0.70280533390694666096;0.25907312854562780657 0.44910774923527313485 0.95481737643579456254 0.087786078185374372129 -0.15033307262471992671 1.4283450766555707556 -0.70677788897190874096 -0.23408707018860414051;-0.43144869616447478755 -0.34805104780884987825 -0.23277136073482909695 -0.86591545256105151296 -0.081551609337853325776 0.61596409460572021377 -0.64130821831750828288 0.80941274336395041544;-0.999822980444076026 -1.7847468294905990405 0.24912607721662849425 -0.02411054804050762404 -0.39000787428925431932 -0.74835750116625365802 0.15536674045892942542 -0.28002048951119462572;0.14699427345314497462 -0.31764126937865749811 0.95535938253120555874 -0.46079871788989562598 0.88670288462711832622 -0.71762844988585250405 -0.41080123220196673728 1.2959455786509266328;-0.085341967704835972053 0.79186221281699464836 -0.20843044163573026806 0.15530911490076373949 0.13344927328160210989 1.0670139535077594051 -1.9316942224625730518 -0.60780737139972340621];

% Layer 2
b2 = [-1.9163578281870778941;1.458374247166201565;-1.1631399197648235599;-1.0320614763511573031;-0.74743727587300623494;-0.76632730055238140743;-0.72372390749684034628;0.60648474016648368234;-0.27811762387136429453;-0.0097192088433781468476;-0.4221923399679773925;-0.21979974892878459403;-0.88253053289276683913;-0.55930660373089979842;0.93778277139633892112;-1.2899462108493704449;-1.3116427375266828115;1.1915890103370283537];
LW2_1 = [-0.36037421104886019352 1.0941143667707429188 0.52231616370314182252 0.14447144865572225658 0.57664398175691677917 -0.08700692276648944179 -0.20246474363370431382 0.14313226715463100991 -0.013291949706666359929 1.3050605774200974007 -0.1214218534766780544 -0.41899834908649241649 1.4837227149265379555 -0.59842483708901605954 -0.85151173228546706007 0.19871106953607189927 -0.43717452233330800215 -1.7070742916119463484 0.98338868084048058904 0.29740462239454390492 -0.67269540798756011224 -0.29982286785571360399 0.040879181272407721925 0.46800142665901944827 -0.19852787476525729504 0.74145061080070062687 0.41715607243593416653 0.63090842449373041312 -0.20129274337143193696 -0.25264004598416950342;0.068714480890847598471 0.032140521492388357538 -0.26713946786400377675 -0.18556737379794907561 0.27537960223950080918 0.070428143880294655221 -0.1107301089101786068 0.04011066158337373011 -0.21281177999882278096 -0.11185691484696153042 0.18990149950563248171 0.20183341469661669754 -0.1520232554551529669 -0.41683267831015929916 -0.08915609340586838627 0.6232409801172297259 0.25221619867631145384 0.44937280027238174496 -0.16869439516057166406 0.38903366020431312533 0.28871763308668463299 0.056495957783427225296 -0.46109849771663946605 0.56149526496272250675 0.16600629606464020749 0.15797010527547211689 -0.39203356367964387053 0.095067008975713435115 0.36384264645640257418 -0.27263729740162412352;0.012498754521049320818 -0.3430148167935592185 -0.14528992160372575237 -0.077228043553159986256 0.25418953781799041858 0.39375195748905905679 0.32889487579313825272 -0.057222636862765512145 0.15010301470878056884 0.34511760314223161039 0.020422207742943284531 -0.31696061656821816754 -0.069797495852459326415 0.49624482923699114734 -0.18469058189980591678 -0.50364609853871489253 -0.1926846031993220687 -0.068802188290912349999 -0.16405679548297089076 -0.29190357601358146722 -0.32702836267770785117 0.37023111673094782903 0.90319235676244691291 -0.48150663415557415359 -0.58725056429040434214 -0.27657426916927868588 -0.093575411070988087636 0.49153753304798480928 -0.046967667816192784636 0.13617173772736929083;-0.33707514677493555233 -0.15321645152415100388 0.65348409183674815992 0.19298198056216731011 -0.26611565688114824368 -0.19749262224223990136 0.36350925845064224751 0.074325366929352348899 -0.20872133372034418208 0.19519732473252646154 -0.34563941984873491897 0.042526357410043354179 -0.28711306242908829489 -0.38505329710406138721 0.11817876892148095058 0.71630347590041953953 0.2759647612144656148 0.4853217628526368399 -0.31530810491737654155 -0.06709403267274884064 -0.42002966415812414969 0.071453134848933230749 -0.78062870755868296602 -0.74568397280983389486 -0.017254108948241423521 0.65508051686962665006 0.037504819353296740825 -0.19740529268000703289 -0.5083800616424389851 -0.13370772609720490975;0.41086995445285984241 -0.51550649394500680511 0.24844065638741388846 -0.053208624208485204299 0.063350431946452179233 0.0547029348915114913 -0.22517172424823556076 0.0024287463450106761345 -0.53260117859338196311 -0.018984476954687051764 0.096650613315660729996 0.31449319611009141084 -0.053270137941248268953 -0.59931830240137662358 -0.062934124187558032615 0.59983326734935371594 0.18511507254196574168 0.26164400768989604096 -0.067830472630940233381 -0.015461358049842215123 0.19082422642978952299 -0.24521144951433512804 0.22178473839581797078 -0.1684571658308462172 -0.092432896677545992037 0.014639230618265884273 0.56278516616044482745 -0.42811142353174208575 -0.34176871651197260338 0.1503137373201844651;0.24947322594250240235 -0.45176739668056231647 -0.44950313503815225724 -0.11117185196831877447 0.081425560939734326071 0.2098761626795731805 -0.43455666533523445993 -0.20806604983720067281 0.66336059713459782916 0.089018552983539375734 -0.16699348006296896307 -0.46605284801446472676 0.23052280387527651628 0.56749165600566853218 -0.49457868358590079128 -0.2280698185632503705 0.11755785190856242461 -0.27309763486516119846 -0.089848537865150623904 -0.15160257610279287421 0.1743790505440059313 -0.24463828166160836441 -0.28293218965787036989 0.22248605014946343239 -0.58402640456664434154 0.085374171785872060569 -0.48807629386832201979 0.31729004832127583047 0.22901514883399143319 -0.20400527772725668418;0.40309690442629309004 0.22529651102364725568 -0.33307116766465977298 -0.10984430835502533019 0.27674909747145376437 -0.2856261294266311257 -0.05951069814839525518 -0.04355966566868905987 -0.18254282244798969437 0.48802034270612770772 -0.41500908643390171937 0.30986940900817527833 -0.37778125218812863562 -0.71719750878583843345 0.4465874354187549522 -0.21744787572213380988 0.28521621661428481209 0.18840045678580236155 0.22412403858499388432 -0.23708372180074899216 0.39365341240118750799 -0.3759803972283122242 0.63422351720593206359 0.20113199479340618248 0.68304602474096542952 0.40086716044400994008 0.40530877260213094004 -0.25961411098308861956 0.11454451045689617583 -0.2498980963140531586;0.22773061765011046176 -0.62266437782148187363 -0.19125658811418680405 0.42723351392844144403 -0.51732616436715450625 0.2383513667281616788 -1.0753379171964496663 0.26796782956821207922 0.62983046002834874866 0.41828020903453844159 -0.21829132712559873308 -0.2151068094127479291 1.5055964836751380975 0.55885013241611425361 -0.3749172895114480375 -0.086753763100025985122 -0.29983947158543905465 -0.627911005774573594 -1.2909501057042764849 0.34309432383082971718 0.66694999140036792529 -0.20003375134990791784 -0.33326719954337158391 0.059657392537627210172 -0.071615390043272761367 0.15483444163084106315 -0.13474261150419999944 -0.55928183297214661973 0.60329065271616733046 -0.48272709424693688307;0.17163910144553204407 -0.24856918937407324055 0.059637588284486280077 -0.10169946567261800574 -0.18094914675808368432 -0.226728746594469871 -0.24200000082506784027 0.09954315150748979657 -0.42840077583629510016 0.094630718454375775672 -0.27900803931651091405 0.32337080934078304972 0.032571036969988143017 -0.76868196506524510969 -0.28541950229419271734 0.02848985394266784904 0.12925894273754656716 0.077413136997231582481 -0.25624976357347678535 -0.36081791119352613073 -0.30648911404736212116 -0.26902153259485106496 -0.021199998580507171259 -0.13833634098950520208 0.40794690594932175864 0.099987105732454659157 0.41482602376617172535 -0.57329357648435119721 -0.011398831402290166351 0.44061472805797136099;-0.44711818462287833409 -0.44985919623111603194 0.064717088547283072031 0.096699923994232300783 0.45621546348382430169 0.32674822079825749377 0.00831343398638168668 0.1967782704471513211 -0.19640321023621057361 0.062968461718910184732 0.2177500667989906713 0.14760277162533591566 0.040662549997102150068 -0.10681270470020318153 0.11464475202863748382 -0.050487263533527226844 -0.057638204028701567339 -0.44247388509947954693 0.14791377510874662016 0.24536419941981071902 0.50109656664231749801 0.054028919919661889948 0.99766314313416404325 -0.034168100612099336355 -0.11361129950940718203 0.67841645077207946013 0.36830390561375619951 0.55169280269083253998 0.03847630259859309565 0.76982304406272283881;-0.10056127721974338074 0.047350942996740030821 0.082044166104481022761 -0.06532428403150669638 -0.57148468375511751738 -0.62251692975936612218 -0.019010584087148119092 -0.13328038721003751532 0.28803526099548254491 -0.63542859797799455812 -0.1349831288771741189 0.56297522594088555969 0.38056771270918210437 0.13214516429258751917 -0.39390733126614707604 0.011699008597642304025 0.13405744887695353329 0.19464822954859908877 -0.19120462051327499764 -0.23896890876472223764 0.18816661151099378646 0.028809023292397716726 0.59344124830913780322 0.19038917350079692659 0.0038176706076467454253 0.58682963296662271624 0.14042862015798990294 0.44857355669420284627 -0.33392285244668062916 -0.44499013714613411263;-0.080422537960271933688 0.012616321074819669343 0.40268092486533968444 0.10301388914385738171 -0.54870896644950417631 0.33237722638628347527 -0.0034507931994285983776 0.17082770388241153015 0.036366856347642952108 0.58723323360171164609 -0.47804656245831106398 -0.51149063892837887124 -0.089624344045604251163 0.22323785018397232505 -0.012877897513061151852 0.071831486552364598452 0.81634824832224051061 -0.47279671768861153414 0.04768116491137661811 0.088142209989007014315 0.05681808982398646457 0.11461849016862744877 -0.064775169915744612581 0.082106211215799695946 -0.056474378873341550544 -0.26905310414816407949 0.13340157607351124658 0.26071669383540890808 0.59936905593510658719 -0.0089201389503970190953;-0.26527337608313578121 0.49872097083916455684 0.15668734879940660054 0.15185176275769193821 0.31798510378407868204 -0.25047078405978895344 -0.081678798744515265784 -0.043930035034041026165 -0.28997955056973190313 -0.084032470538912135138 0.12301493085097769953 0.2736128826339315756 -0.19529986968764476152 -0.25204784741846220086 0.11205447400601656338 -0.57728364402468679284 -0.015588084459154997324 0.021974506455324629983 0.14236592345931148307 0.47225741322531533672 -0.28494326120265328628 -0.72029428522637761745 0.030889538337107988464 0.37839050895842618605 0.12780099703336228467 0.20250207381308765742 -0.090842264766561334199 0.027652592292818294062 0.0031811131613179439818 0.54741531402124699035;-0.14978078544148881734 -0.15833215771004829908 -0.050676687604515907593 0.34676837649479380632 -0.07049475401822034859 -0.099663541807718095122 -0.048500832257151016425 -0.15626831188345169377 0.85666108815422503664 -0.36082144031538099238 0.34356075820289166955 -0.54758767957886778088 0.44428459814601545252 0.55655252191980497667 -0.47029284910921898 -0.34486671605585289546 0.59909809973973771058 -0.64038450155257331531 -0.37923652059973117501 0.02459011681158626908 -0.27573973553498709599 -0.45181389079160044764 0.40223925267479210266 -0.25720222302325868036 -0.26044317235616987194 -0.55702848222783696297 -0.48878315513977244056 -0.27145418562904749527 0.075446554138315871652 0.16994754976672218905;0.1561390373677429555 0.045016596095771806152 -0.29037104625978582551 -0.2932793339582436265 -0.34077449068305326607 0.36123414888888705221 -0.51473848446111036825 -0.10215899364907124469 0.36009714232687767277 0.15894764655366072637 -0.054070892638778962624 -0.83606417395302223827 -0.029674939772120427495 0.83654760425580598771 -0.2691574825597850551 -0.8896626877574181913 -0.18811822367474848039 -0.13280089155536922707 0.00031025083216800353886 0.14763927403344165312 0.44702232180186241006 -0.23112574180510594979 0.29590112596751894092 -0.17613481437743788716 -0.48137388345601395123 -0.38844762443881586389 0.3356280021213257081 0.4317155831686320111 0.090202513817566762344 0.59748681295103878153;-0.051227255334497144579 0.45673655952295599825 -0.25571110993696921643 0.11352683015881095963 0.036362177407876103419 -0.45321987389906009946 -0.06267566181945820325 -0.043169786745125060534 0.4150726848845143202 -0.078907899223799399246 -0.11976118000696574228 -0.53045187196421661469 0.084509895758814151945 0.49281750181648270592 0.19038064364456439015 -0.24940888942541117324 -0.097657925559076305677 -0.30461227444350541527 0.34245559550404014448 -0.21802145945075779299 -0.10591679150141722343 -0.68916538560277973424 -0.48742558037729344367 0.12443029733689041361 -0.28272361480855773275 0.35723221987794956389 -0.46565190200470590876 -0.26650949758492847863 0.1817252353998841663 0.035345883333434781337;-0.28495717908741763358 0.028998732791705367218 0.45250085419365737582 0.11040403476140434047 0.017584667513170147007 0.37819579215259663263 0.14564861669463616267 -0.28269375314084055351 0.32485320548458324064 -0.15877676497824508295 0.52127447331883725035 -0.76318442160775612493 2.1744130646488067475e-05 -0.29820882224900613355 -0.22971377720705765668 0.32705482887221715149 -0.07681119113100236262 0.44688273065800404593 -0.006702708459481544756 -0.0013954747225801544114 -0.041177448802093286062 0.61708944996654369053 -0.40323069363486735428 0.22631499436739055398 -0.010494635581073004371 -0.20678219767843472598 0.28443376882332033206 0.17103056101471342254 -0.17345549523393466451 -0.326883906510447797;0.061474314881393987697 -0.34098088168454249169 -0.018143745381514170267 0.21671958750356187795 0.36582336997344888641 -0.35796236834824535222 -0.076321693596799786152 0.14433606602782472761 0.14582561456370446429 0.0049041271410913186285 0.56008215968062302625 0.11847624278518664731 -0.033882592410495133983 0.04575662427521888509 0.25316113686958841011 0.43931179372688705653 0.55209821953237314673 -0.060058854218429505445 0.26002573287442026784 0.44577602801871113458 0.80790461012987380141 0.281718928044416006 0.81574017255710817853 0.35226986192045162127 0.17312038199506415981 -0.84256042691586363613 -0.17455253275957452463 0.43703682765054602255 -0.15837244488704629863 -0.074995095006028841822];

% Layer 3
b3 = [0.034300643781353300221;-0.53460895933021213011;-0.23904839416736628488];
LW3_2 = [-0.0058349084120079474855 -0.47927548467983843716 -0.49804822989018027179 -0.43009703529145221212 0.64648635759832373537 0.38863966844265968037 0.46752610773530578481 0.014022416932396600253 -0.86322485580180818854 0.68852742395230226435 -0.24727420430079624647 -0.19638465090221646214 -0.053878925172057647031 0.36028105940570465116 0.055295755948123574697 -0.93394326843560226958 -0.79447509635943358575 -0.76530019829185569336;-0.0021873660481983715591 0.23039378858802569972 -0.44749608964674186806 0.045290013321344538277 0.82561585664817227492 0.33551838442128617546 0.018892344373864868035 0.011333348050240974608 -0.58070565094194992461 -0.10291339329396229085 0.20192041219334719293 0.49621791467049536362 -0.96962115812102112056 -0.049365115974473336435 -0.24913854950767566621 -0.42404396716520431632 0.25175722684251394812 -0.13274922828439961187;-0.55179917966480374059 0.29555037955831520158 -0.65616398789391894297 1.412097849792277815 0.086661613202845072523 -0.35882860078496758849 -0.42249411110886631038 0.69397179752930771013 -0.77591388558145502063 -0.40960129483817997453 -0.62806886790335092474 -0.92547336250575984451 -0.66921682201260668243 0.84039124120382258099 0.56568399264879110078 0.059712692171381913375 0.47110203605706391095 0.63206723896536864959];

% Output 1
y1_step1.ymin = -1;
y1_step1.gain = [0.105667170725345;0.105103669365805;1.67534829823764];
y1_step1.xoffset = [-9.43499627244463;-9.49817538699865;0.00010456170540001];

% ===== SIMULATION ========

% Format Input Arguments
isCellX = iscell(X);
if ~isCellX
  X = {X};
end

% Dimensions
TS = size(X,2); % timesteps
if ~isempty(X)
  Q = size(X{1},2); % samples/series
else
  Q = 0;
end

% Allocate Outputs
Y = cell(1,TS);

% Time loop
for ts=1:TS

    % Input 1
    Xp1 = mapminmax_apply(X{1,ts},x1_step1);
    
    % Layer 1
    a1 = tansig_apply(repmat(b1,1,Q) + IW1_1*Xp1);
    
    % Layer 2
    a2 = tansig_apply(repmat(b2,1,Q) + LW2_1*a1);
    
    % Layer 3
    a3 = repmat(b3,1,Q) + LW3_2*a2;
    
    % Output 1
    Y{1,ts} = mapminmax_reverse(a3,y1_step1);
end

% Final Delay States
Xf = cell(1,0);
Af = cell(3,0);

% Format Output Arguments
if ~isCellX
  Y = cell2mat(Y);
end
end

% ===== MODULE FUNCTIONS ========

% Map Minimum and Maximum Input Processing Function
function y = mapminmax_apply(x,settings)
  y = bsxfun(@minus,x,settings.xoffset);
  y = bsxfun(@times,y,settings.gain);
  y = bsxfun(@plus,y,settings.ymin);
end

% Sigmoid Symmetric Transfer Function
function a = tansig_apply(n,~)
  a = 2 ./ (1 + exp(-2*n)) - 1;
end

% Map Minimum and Maximum Output Reverse-Processing Function
function x = mapminmax_reverse(y,settings)
  x = bsxfun(@minus,y,settings.ymin);
  x = bsxfun(@rdivide,x,settings.gain);
  x = bsxfun(@plus,x,settings.xoffset);
end
